// #### Generated By: http://www.cufonfonts.com ####
/*!
 * The following copyright notice may not be removed under any circumstances.
 * 
 * Copyright:
 * Copyright qrelly 2011
 * 
 * Trademark:
 * FontStruct is a trademark of FSI FontShop International GmbH
 * 
 * Description:
 * Minecraft was built with FontStruct
 * 
 * 
 * Manufacturer:
 * http://fontstruct.com
 * 
 * Designer:
 * qrelly
 * 
 * Vendor URL:
 * http://www.fontshop.com
 * 
 * License information:
 * http://creativecommons.org/licenses/by-nc/3.0/
 */
Cufon.registerFont({"w":768,"face":{"font-family":"Minecraft Regular","font-weight":400,"font-stretch":"normal","units-per-em":"1024","panose-1":"0 0 4 0 0 0 0 0 0 0","ascent":"896","descent":"-128","bbox":"0 -896 768 128","underline-thickness":"51","underline-position":"127","unicode-range":"U+0020-U+007E"},"glyphs":{" ":{"w":384},"!":{"d":"0,0r0,-128r128,0r0,128r-128,0xm0,-256r0,-640r128,0r0,640r-128,0","w":256},"\"":{"d":"0,-512r0,-384r128,0r0,384r-128,0xm256,-512r0,-384r128,0r0,384r-128,0","w":512},"#":{"d":"384,-384r0,-128r-128,0r0,128r128,0xm128,0r0,-256r-128,0r0,-128r128,0r0,-128r-128,0r0,-128r128,0r0,-256r128,0r0,256r128,0r0,-256r128,0r0,256r128,0r0,128r-128,0r0,128r128,0r0,128r-128,0r0,256r-128,0r0,-256r-128,0r0,256r-128,0"},"$":{"d":"256,0r0,-128r-256,0r0,-128r512,0r0,128r-128,0r0,128r-128,0xm512,-256r0,-128r128,0r0,128r-128,0xm128,-384r0,-128r384,0r0,128r-384,0xm0,-512r0,-128r128,0r0,128r-128,0xm128,-640r0,-128r128,0r0,-128r128,0r0,128r256,0r0,128r-512,0"},"%":{"d":"0,0r0,-128r128,0r0,128r-128,0xm512,0r0,-256r128,0r0,256r-128,0xm128,-128r0,-256r128,0r0,256r-128,0xm256,-384r0,-128r128,0r0,128r-128,0xm384,-512r0,-256r128,0r0,256r-128,0xm0,-640r0,-256r128,0r0,256r-128,0xm512,-768r0,-128r128,0r0,128r-128,0"},"&":{"d":"128,0r0,-128r256,0r0,128r-256,0xm512,0r0,-128r128,0r0,128r-128,0xm0,-128r0,-256r128,0r0,256r-128,0xm512,-384r0,-128r128,0r0,128r-128,0xm384,-128r0,-128r-128,0r0,-128r-128,0r0,-128r128,0r0,-128r128,0r0,256r128,0r0,256r-128,0xm128,-640r0,-128r128,0r0,128r-128,0xm384,-640r0,-128r128,0r0,128r-128,0xm256,-768r0,-128r128,0r0,128r-128,0"},"'":{"d":"0,-512r0,-384r128,0r0,384r-128,0","w":256},"(":{"d":"256,0r0,-128r256,0r0,128r-256,0xm128,-128r0,-128r128,0r0,128r-128,0xm0,-256r0,-384r128,0r0,384r-128,0xm128,-640r0,-128r128,0r0,128r-128,0xm256,-768r0,-128r256,0r0,128r-256,0","w":640},")":{"d":"0,0r0,-128r256,0r0,128r-256,0xm256,-128r0,-128r128,0r0,128r-128,0xm384,-256r0,-384r128,0r0,384r-128,0xm256,-640r0,-128r128,0r0,128r-128,0xm0,-768r0,-128r256,0r0,128r-256,0","w":640},"*":{"d":"128,-512r0,-128r128,0r0,128r-128,0xm384,-512r0,-128r128,0r0,128r-128,0xm256,-640r0,-128r128,0r0,128r-128,0xm128,-768r0,-128r128,0r0,128r-128,0xm384,-768r0,-128r128,0r0,128r-128,0","w":640},"+":{"d":"256,-128r0,-256r-256,0r0,-128r256,0r0,-256r128,0r0,256r256,0r0,128r-256,0r0,256r-128,0"},",":{"d":"0,128r0,-128r128,0r0,128r-128,0xm128,0r0,-128r128,0r0,128r-128,0","w":384},"-":{"d":"0,-384r0,-128r640,0r0,128r-640,0"},".":{"d":"0,0r0,-128r128,0r0,128r-128,0","w":256},"\/":{"d":"0,0r0,-128r128,0r0,128r-128,0xm128,-128r0,-256r128,0r0,256r-128,0xm256,-384r0,-128r128,0r0,128r-128,0xm384,-512r0,-256r128,0r0,256r-128,0xm512,-768r0,-128r128,0r0,128r-128,0"},"0":{"d":"128,0r0,-128r384,0r0,128r-384,0xm256,-384r0,-128r128,0r0,128r-128,0xm0,-128r0,-640r128,0r0,384r128,0r0,128r-128,0r0,128r-128,0xm512,-128r0,-384r-128,0r0,-128r128,0r0,-128r128,0r0,640r-128,0xm128,-768r0,-128r384,0r0,128r-384,0"},"1":{"d":"0,0r0,-128r256,0r0,-512r-128,0r0,-128r128,0r0,-128r128,0r0,768r256,0r0,128r-640,0"},"2":{"d":"0,0r0,-256r128,0r0,128r384,0r0,-128r128,0r0,256r-640,0xm128,-256r0,-128r128,0r0,128r-128,0xm256,-384r0,-128r256,0r0,128r-256,0xm0,-640r0,-128r128,0r0,128r-128,0xm512,-512r0,-256r128,0r0,256r-128,0xm128,-768r0,-128r384,0r0,128r-384,0"},"3":{"d":"128,0r0,-128r384,0r0,128r-384,0xm0,-128r0,-128r128,0r0,128r-128,0xm512,-128r0,-256r128,0r0,256r-128,0xm256,-384r0,-128r256,0r0,128r-256,0xm0,-640r0,-128r128,0r0,128r-128,0xm512,-512r0,-256r128,0r0,256r-128,0xm128,-768r0,-128r384,0r0,128r-384,0"},"4":{"d":"128,-512r0,-128r128,0r0,128r-128,0xm256,-640r0,-128r128,0r0,128r-128,0xm512,0r0,-256r-512,0r0,-256r128,0r0,128r384,0r0,-384r-128,0r0,-128r256,0r0,896r-128,0"},"5":{"d":"128,0r0,-128r384,0r0,128r-384,0xm0,-128r0,-128r128,0r0,128r-128,0xm512,-128r0,-384r128,0r0,384r-128,0xm0,-512r0,-384r640,0r0,128r-512,0r0,128r384,0r0,128r-512,0"},"6":{"d":"128,0r0,-128r384,0r0,128r-384,0xm512,-128r0,-256r128,0r0,256r-128,0xm0,-128r0,-512r128,0r0,128r384,0r0,128r-384,0r0,256r-128,0xm128,-640r0,-128r128,0r0,128r-128,0xm256,-768r0,-128r256,0r0,128r-256,0"},"7":{"d":"256,0r0,-384r128,0r0,384r-128,0xm384,-384r0,-128r128,0r0,128r-128,0xm512,-512r0,-256r-384,0r0,128r-128,0r0,-256r640,0r0,384r-128,0"},"8":{"d":"128,0r0,-128r384,0r0,128r-384,0xm0,-128r0,-256r128,0r0,256r-128,0xm512,-128r0,-256r128,0r0,256r-128,0xm128,-384r0,-128r384,0r0,128r-384,0xm0,-512r0,-256r128,0r0,256r-128,0xm512,-512r0,-256r128,0r0,256r-128,0xm128,-768r0,-128r384,0r0,128r-384,0"},"9":{"d":"128,0r0,-128r256,0r0,128r-256,0xm384,-128r0,-128r128,0r0,128r-128,0xm0,-512r0,-256r128,0r0,256r-128,0xm512,-256r0,-128r-384,0r0,-128r384,0r0,-256r128,0r0,512r-128,0xm128,-768r0,-128r384,0r0,128r-384,0"},":":{"d":"0,-128r0,-256r128,0r0,256r-128,0xm0,-512r0,-256r128,0r0,256r-128,0","w":256},";":{"d":"128,-128r0,-128r128,0r0,128r-128,0xm256,-256r0,-128r128,0r0,128r-128,0xm256,-512r0,-256r128,0r0,256r-128,0","w":512},"<":{"d":"384,0r0,-128r128,0r0,128r-128,0xm256,-128r0,-128r128,0r0,128r-128,0xm128,-256r0,-128r128,0r0,128r-128,0xm0,-384r0,-128r128,0r0,128r-128,0xm128,-512r0,-128r128,0r0,128r-128,0xm256,-640r0,-128r128,0r0,128r-128,0xm384,-768r0,-128r128,0r0,128r-128,0","w":640},"=":{"d":"0,-128r0,-128r640,0r0,128r-640,0xm0,-512r0,-128r640,0r0,128r-640,0"},">":{"d":"0,0r0,-128r128,0r0,128r-128,0xm128,-128r0,-128r128,0r0,128r-128,0xm256,-256r0,-128r128,0r0,128r-128,0xm384,-384r0,-128r128,0r0,128r-128,0xm256,-512r0,-128r128,0r0,128r-128,0xm128,-640r0,-128r128,0r0,128r-128,0xm0,-768r0,-128r128,0r0,128r-128,0","w":640},"?":{"d":"256,0r0,-128r128,0r0,128r-128,0xm256,-256r0,-128r128,0r0,128r-128,0xm384,-384r0,-128r128,0r0,128r-128,0xm0,-640r0,-128r128,0r0,128r-128,0xm512,-512r0,-256r128,0r0,256r-128,0xm128,-768r0,-128r384,0r0,128r-384,0"},"@":{"d":"128,0r0,-128r512,0r0,128r-512,0xm0,-128r0,-640r128,0r0,640r-128,0xm256,-256r0,-384r256,0r0,256r128,0r0,-384r128,0r0,512r-512,0xm128,-768r0,-128r512,0r0,128r-512,0","w":896},"A":{"d":"0,0r0,-768r128,0r0,128r384,0r0,-128r128,0r0,768r-128,0r0,-512r-384,0r0,512r-128,0xm128,-768r0,-128r384,0r0,128r-384,0"},"B":{"d":"512,-128r0,-384r128,0r0,384r-128,0xm512,-640r0,-128r128,0r0,128r-128,0xm0,0r0,-896r512,0r0,128r-384,0r0,128r384,0r0,128r-384,0r0,384r384,0r0,128r-512,0"},"C":{"d":"128,0r0,-128r384,0r0,128r-384,0xm512,-128r0,-128r128,0r0,128r-128,0xm0,-128r0,-640r128,0r0,640r-128,0xm512,-640r0,-128r128,0r0,128r-128,0xm128,-768r0,-128r384,0r0,128r-384,0"},"D":{"d":"512,-128r0,-640r128,0r0,640r-128,0xm0,0r0,-896r512,0r0,128r-384,0r0,640r384,0r0,128r-512,0"},"E":{"d":"0,0r0,-896r640,0r0,128r-512,0r0,128r256,0r0,128r-256,0r0,384r512,0r0,128r-640,0"},"F":{"d":"0,0r0,-896r640,0r0,128r-512,0r0,128r256,0r0,128r-256,0r0,512r-128,0"},"G":{"d":"128,0r0,-128r384,0r0,128r-384,0xm512,-128r0,-384r-128,0r0,-128r256,0r0,512r-128,0xm0,-128r0,-640r128,0r0,640r-128,0xm128,-768r0,-128r512,0r0,128r-512,0"},"H":{"d":"0,0r0,-896r128,0r0,256r384,0r0,-256r128,0r0,896r-128,0r0,-512r-384,0r0,512r-128,0"},"I":{"d":"0,0r0,-128r128,0r0,-640r-128,0r0,-128r384,0r0,128r-128,0r0,640r128,0r0,128r-384,0","w":512},"J":{"d":"128,0r0,-128r384,0r0,128r-384,0xm0,-128r0,-128r128,0r0,128r-128,0xm512,-128r0,-768r128,0r0,768r-128,0"},"K":{"d":"512,0r0,-384r128,0r0,384r-128,0xm384,-384r0,-128r128,0r0,128r-128,0xm384,-640r0,-128r128,0r0,128r-128,0xm0,0r0,-896r128,0r0,256r256,0r0,128r-256,0r0,512r-128,0xm512,-768r0,-128r128,0r0,128r-128,0"},"L":{"d":"0,0r0,-896r128,0r0,768r512,0r0,128r-640,0"},"M":{"d":"256,-512r0,-128r128,0r0,128r-128,0xm0,0r0,-896r128,0r0,128r128,0r0,128r-128,0r0,640r-128,0xm512,0r0,-640r-128,0r0,-128r128,0r0,-128r128,0r0,896r-128,0"},"N":{"d":"256,-512r0,-128r128,0r0,128r-128,0xm0,0r0,-896r128,0r0,128r128,0r0,128r-128,0r0,640r-128,0xm512,0r0,-384r-128,0r0,-128r128,0r0,-384r128,0r0,896r-128,0"},"O":{"d":"128,0r0,-128r384,0r0,128r-384,0xm0,-128r0,-640r128,0r0,640r-128,0xm512,-128r0,-640r128,0r0,640r-128,0xm128,-768r0,-128r384,0r0,128r-384,0"},"P":{"d":"512,-640r0,-128r128,0r0,128r-128,0xm0,0r0,-896r512,0r0,128r-384,0r0,128r384,0r0,128r-384,0r0,512r-128,0"},"Q":{"d":"128,0r0,-128r256,0r0,128r-256,0xm512,0r0,-128r128,0r0,128r-128,0xm384,-128r0,-128r128,0r0,128r-128,0xm0,-128r0,-640r128,0r0,640r-128,0xm512,-256r0,-512r128,0r0,512r-128,0xm128,-768r0,-128r384,0r0,128r-384,0"},"R":{"d":"512,0r0,-512r128,0r0,512r-128,0xm512,-640r0,-128r128,0r0,128r-128,0xm0,0r0,-896r512,0r0,128r-384,0r0,128r384,0r0,128r-384,0r0,512r-128,0"},"S":{"d":"128,0r0,-128r384,0r0,128r-384,0xm0,-128r0,-128r128,0r0,128r-128,0xm512,-128r0,-384r128,0r0,384r-128,0xm128,-512r0,-128r384,0r0,128r-384,0xm0,-640r0,-128r128,0r0,128r-128,0xm128,-768r0,-128r512,0r0,128r-512,0"},"T":{"d":"256,0r0,-768r-256,0r0,-128r640,0r0,128r-256,0r0,768r-128,0"},"U":{"d":"128,0r0,-128r384,0r0,128r-384,0xm0,-128r0,-768r128,0r0,768r-128,0xm512,-128r0,-768r128,0r0,768r-128,0"},"V":{"d":"256,0r0,-128r128,0r0,128r-128,0xm128,-128r0,-256r128,0r0,256r-128,0xm384,-128r0,-256r128,0r0,256r-128,0xm0,-384r0,-512r128,0r0,512r-128,0xm512,-384r0,-512r128,0r0,512r-128,0"},"W":{"d":"256,-256r0,-128r128,0r0,128r-128,0xm0,0r0,-896r128,0r0,640r128,0r0,128r-128,0r0,128r-128,0xm512,0r0,-128r-128,0r0,-128r128,0r0,-640r128,0r0,896r-128,0"},"X":{"d":"0,0r0,-384r128,0r0,384r-128,0xm512,0r0,-384r128,0r0,384r-128,0xm128,-384r0,-128r128,0r0,128r-128,0xm384,-384r0,-128r128,0r0,128r-128,0xm256,-512r0,-128r128,0r0,128r-128,0xm128,-640r0,-128r128,0r0,128r-128,0xm384,-640r0,-128r128,0r0,128r-128,0xm0,-768r0,-128r128,0r0,128r-128,0xm512,-768r0,-128r128,0r0,128r-128,0"},"Y":{"d":"256,0r0,-640r128,0r0,640r-128,0xm128,-640r0,-128r128,0r0,128r-128,0xm384,-640r0,-128r128,0r0,128r-128,0xm0,-768r0,-128r128,0r0,128r-128,0xm512,-768r0,-128r128,0r0,128r-128,0"},"Z":{"d":"0,0r0,-256r128,0r0,128r512,0r0,128r-640,0xm128,-256r0,-128r128,0r0,128r-128,0xm256,-384r0,-128r128,0r0,128r-128,0xm384,-512r0,-128r128,0r0,128r-128,0xm512,-640r0,-128r-512,0r0,-128r640,0r0,256r-128,0"},"[":{"d":"128,0r0,-896r384,0r0,128r-256,0r0,640r256,0r0,128r-384,0","w":640},"\\":{"d":"512,0r0,-128r128,0r0,128r-128,0xm384,-128r0,-256r128,0r0,256r-128,0xm256,-384r0,-128r128,0r0,128r-128,0xm128,-512r0,-256r128,0r0,256r-128,0xm0,-768r0,-128r128,0r0,128r-128,0"},"]":{"d":"128,0r0,-128r256,0r0,-640r-256,0r0,-128r384,0r0,896r-384,0","w":640},"^":{"d":"0,-512r0,-128r128,0r0,128r-128,0xm512,-512r0,-128r128,0r0,128r-128,0xm128,-640r0,-128r128,0r0,128r-128,0xm384,-640r0,-128r128,0r0,128r-128,0xm256,-768r0,-128r128,0r0,128r-128,0"},"_":{"d":"0,0r0,-128r640,0r0,128r-640,0"},"`":{"d":"128,-512r0,-128r128,0r0,128r-128,0xm0,-640r0,-256r128,0r0,256r-128,0","w":384},"a":{"d":"0,-128r0,-128r128,0r0,128r-128,0xm128,0r0,-128r384,0r0,-128r-384,0r0,-128r384,0r0,-128r128,0r0,512r-512,0xm128,-512r0,-128r384,0r0,128r-384,0"},"b":{"d":"512,-128r0,-384r128,0r0,384r-128,0xm256,-512r0,-128r256,0r0,128r-256,0xm0,0r0,-896r128,0r0,384r128,0r0,128r-128,0r0,256r384,0r0,128r-512,0"},"c":{"d":"128,0r0,-128r384,0r0,128r-384,0xm512,-128r0,-128r128,0r0,128r-128,0xm0,-128r0,-384r128,0r0,384r-128,0xm512,-384r0,-128r128,0r0,128r-128,0xm128,-512r0,-128r384,0r0,128r-384,0"},"d":{"d":"0,-128r0,-384r128,0r0,384r-128,0xm128,-512r0,-128r256,0r0,128r-256,0xm128,0r0,-128r384,0r0,-256r-128,0r0,-128r128,0r0,-384r128,0r0,896r-512,0"},"e":{"d":"128,0r0,-128r512,0r0,128r-512,0xm0,-128r0,-384r128,0r0,128r384,0r0,-128r128,0r0,256r-512,0r0,128r-128,0xm128,-512r0,-128r384,0r0,128r-384,0"},"f":{"d":"128,0r0,-512r-128,0r0,-128r128,0r0,-128r128,0r0,128r256,0r0,128r-256,0r0,512r-128,0xm256,-768r0,-128r256,0r0,128r-256,0","w":640},"g":{"d":"0,128r0,-128r512,0r0,128r-512,0xm0,-256r0,-256r128,0r0,256r-128,0xm512,0r0,-128r-384,0r0,-128r384,0r0,-256r-384,0r0,-128r512,0r0,640r-128,0"},"h":{"d":"512,0r0,-512r128,0r0,512r-128,0xm256,-512r0,-128r256,0r0,128r-256,0xm0,0r0,-896r128,0r0,384r128,0r0,128r-128,0r0,384r-128,0"},"i":{"d":"0,0r0,-640r128,0r0,640r-128,0xm0,-768r0,-128r128,0r0,128r-128,0","w":256},"j":{"d":"128,128r0,-128r384,0r0,128r-384,0xm0,0r0,-128r128,0r0,128r-128,0xm512,0r0,-640r128,0r0,640r-128,0xm512,-768r0,-128r128,0r0,128r-128,0"},"k":{"d":"384,0r0,-128r128,0r0,128r-128,0xm256,-128r0,-128r128,0r0,128r-128,0xm256,-384r0,-128r128,0r0,128r-128,0xm384,-512r0,-128r128,0r0,128r-128,0xm0,0r0,-896r128,0r0,512r128,0r0,128r-128,0r0,256r-128,0","w":640},"l":{"d":"128,0r0,-128r128,0r0,128r-128,0xm0,-128r0,-768r128,0r0,768r-128,0","w":384},"m":{"d":"256,-256r0,-256r128,0r0,256r-128,0xm512,0r0,-512r128,0r0,512r-128,0xm0,0r0,-640r256,0r0,128r-128,0r0,512r-128,0xm384,-512r0,-128r128,0r0,128r-128,0"},"n":{"d":"512,0r0,-512r128,0r0,512r-128,0xm0,0r0,-640r512,0r0,128r-384,0r0,512r-128,0"},"o":{"d":"128,0r0,-128r384,0r0,128r-384,0xm0,-128r0,-384r128,0r0,384r-128,0xm512,-128r0,-384r128,0r0,384r-128,0xm128,-512r0,-128r384,0r0,128r-384,0"},"p":{"d":"512,-256r0,-256r128,0r0,256r-128,0xm0,128r0,-768r128,0r0,128r128,0r0,128r-128,0r0,128r384,0r0,128r-384,0r0,256r-128,0xm256,-512r0,-128r256,0r0,128r-256,0"},"q":{"d":"0,-256r0,-256r128,0r0,256r-128,0xm128,-512r0,-128r256,0r0,128r-256,0xm512,128r0,-256r-384,0r0,-128r384,0r0,-128r-128,0r0,-128r128,0r0,-128r128,0r0,768r-128,0"},"r":{"d":"512,-384r0,-128r128,0r0,128r-128,0xm0,0r0,-640r128,0r0,128r128,0r0,128r-128,0r0,384r-128,0xm256,-512r0,-128r256,0r0,128r-256,0"},"s":{"d":"0,0r0,-128r512,0r0,128r-512,0xm512,-128r0,-128r128,0r0,128r-128,0xm128,-256r0,-128r384,0r0,128r-384,0xm0,-384r0,-128r128,0r0,128r-128,0xm128,-512r0,-128r512,0r0,128r-512,0"},"t":{"d":"256,0r0,-128r128,0r0,128r-128,0xm128,-128r0,-384r-128,0r0,-128r128,0r0,-256r128,0r0,256r128,0r0,128r-128,0r0,384r-128,0","w":512},"u":{"d":"0,-128r0,-512r128,0r0,512r-128,0xm128,0r0,-128r384,0r0,-512r128,0r0,640r-512,0"},"v":{"d":"256,0r0,-128r128,0r0,128r-128,0xm128,-128r0,-128r128,0r0,128r-128,0xm384,-128r0,-128r128,0r0,128r-128,0xm0,-256r0,-384r128,0r0,384r-128,0xm512,-256r0,-384r128,0r0,384r-128,0"},"w":{"d":"0,-128r0,-512r128,0r0,512r-128,0xm128,0r0,-128r128,0r0,-256r128,0r0,256r128,0r0,-512r128,0r0,640r-512,0"},"x":{"d":"0,0r0,-128r128,0r0,128r-128,0xm512,0r0,-128r128,0r0,128r-128,0xm128,-128r0,-128r128,0r0,128r-128,0xm384,-128r0,-128r128,0r0,128r-128,0xm256,-256r0,-128r128,0r0,128r-128,0xm128,-384r0,-128r128,0r0,128r-128,0xm384,-384r0,-128r128,0r0,128r-128,0xm0,-512r0,-128r128,0r0,128r-128,0xm512,-512r0,-128r128,0r0,128r-128,0"},"y":{"d":"0,128r0,-128r512,0r0,128r-512,0xm0,-256r0,-384r128,0r0,384r-128,0xm512,0r0,-128r-384,0r0,-128r384,0r0,-384r128,0r0,640r-128,0"},"z":{"d":"0,0r0,-128r128,0r0,-128r128,0r0,128r384,0r0,128r-640,0xm256,-256r0,-128r128,0r0,128r-128,0xm384,-384r0,-128r-384,0r0,-128r640,0r0,128r-128,0r0,128r-128,0"},"{":{"d":"256,0r0,-128r256,0r0,128r-256,0xm128,-128r0,-256r128,0r0,256r-128,0xm0,-384r0,-128r128,0r0,128r-128,0xm128,-512r0,-256r128,0r0,256r-128,0xm256,-768r0,-128r256,0r0,128r-256,0","w":640},"|":{"d":"0,0r0,-896r128,0r0,896r-128,0","w":256},"}":{"d":"0,0r0,-128r256,0r0,128r-256,0xm256,-128r0,-256r128,0r0,256r-128,0xm384,-384r0,-128r128,0r0,128r-128,0xm256,-512r0,-256r128,0r0,256r-128,0xm0,-768r0,-128r256,0r0,128r-256,0","w":640},"~":{"d":"0,-640r0,-128r128,0r0,128r-128,0xm384,-640r0,-128r256,0r0,128r-256,0xm128,-768r0,-128r256,0r0,128r-256,0xm640,-768r0,-128r128,0r0,128r-128,0","w":896},"\u00a0":{"w":384}}});


