// #### Generated By: http://www.cufonfonts.com ####
/*!
 * The following copyright notice may not be removed under any circumstances.
 * 
 * Copyright:
 * Copyright (c) Pixietype.com, 2003. All rights reserved. www.pixietype.com
 * 
 * Trademark:
 * Quadrit is a trademark of Pixietype.com.
 * 
 * Manufacturer:
 * Pixietype.com
 * 
 * Designer:
 * www.pixietype.com
 * 
 * Vendor URL:
 * www.pixietype.com
 */
Cufon.registerFont({"w":700,"face":{"font-family":"Quadrit","font-weight":400,"font-stretch":"normal","units-per-em":"1000","panose-1":"2 0 5 0 0 0 0 2 0 3","ascent":"800","descent":"-200","bbox":"-200 -1200 1500 400","underline-thickness":"50","underline-position":"-50","unicode-range":"U+0020-U+007D"},"glyphs":{" ":{"w":400},"\u00a0":{"w":400},"!":{"d":"0,-1000r200,0r0,600r-200,0r0,-600xm0,-200r200,0r0,200r-200,0r0,-200","w":300},"\"":{"d":"300,-1000r200,0r0,400r-100,0r0,100r-100,0r0,-500xm0,-1000r200,0r0,400r-100,0r0,100r-100,0r0,-500","w":600},"#":{"d":"0,-700r100,0r0,-100r-100,0r0,-100r100,0r0,-100r100,0r0,100r100,0r0,-100r100,0r0,100r100,0r0,100r-100,0r0,100r100,0r0,100r-100,0r0,100r-100,0r0,-100r-100,0r0,100r-100,0r0,-100r-100,0r0,-100xm200,-700r100,0r0,-100r-100,0r0,100","w":600},"$":{"d":"200,0r-200,0r0,-200r400,0r0,-200r-300,0r0,-100r-100,0r0,-400r100,0r0,-100r100,0r0,-200r200,0r0,200r200,0r0,200r-400,0r0,200r300,0r0,100r100,0r0,400r-100,0r0,100r-100,0r0,200r-200,0r0,-200"},"%":{"d":"602,0r-204,0r0,-202r100,0r0,-200r100,0r0,-196r-96,0r0,100r-100,0r0,100r-204,0r0,-100r-100,0r0,-100r-98,0r0,-204r98,0r0,-100r100,0r0,-98r204,0r0,98r100,0r0,100r100,0r0,200r96,0r0,-200r100,0r0,-100r204,0r0,204r-100,0r0,200r-100,0r0,200r-100,0r0,200r-100,0r0,98xm1302,0r-204,0r0,-98r-100,0r0,-100r-100,0r0,-204r100,0r0,-100r100,0r0,-100r204,0r0,100r100,0r0,100r98,0r0,204r-98,0r0,100r-100,0r0,98xm1102,-202r196,0r0,-196r-196,0r0,196xm202,-602r196,0r0,-196r-196,0r0,196","w":1600},"&":{"d":"500,-800r-300,0r0,200r200,0r0,200r-200,0r0,200r300,0r0,-400r300,0r0,200r-100,0r0,200r200,0r0,200r-300,0r0,-100r-100,0r0,100r-400,0r0,-100r-100,0r0,-300r100,0r0,-200r-100,0r0,-300r100,0r0,-100r500,0r0,100r100,0r0,200r-200,0r0,-100","w":1000},"(":{"d":"100,-200r-100,0r0,-600r100,0r0,-200r300,0r0,200r-100,0r0,100r-100,0r0,400r100,0r0,100r100,0r0,200r-300,0r0,-200","w":500},")":{"d":"300,-800r100,0r0,600r-100,0r0,200r-300,0r0,-200r100,0r0,-100r100,0r0,-400r-100,0r0,-100r-100,0r0,-200r300,0r0,200","w":500},"*":{"d":"398,-902r102,0r0,104r-98,0r0,196r98,0r0,104r-102,0r0,-100r-96,0r0,198r-104,0r0,-198r-96,0r0,100r-102,0r0,-104r98,0r0,-196r-98,0r0,-104r102,0r0,100r96,0r0,-198r104,0r0,198r96,0r0,-100","w":600},"+":{"d":"0,-400r200,0r0,-200r200,0r0,200r200,0r0,200r-200,0r0,200r-200,0r0,-200r-200,0r0,-200"},",":{"d":"0,-200r200,0r0,400r-100,0r0,-200r-100,0r0,-200","w":300},"-":{"d":"0,-400r600,0r0,200r-600,0r0,-200"},".":{"d":"0,-200r200,0r0,200r-200,0r0,-200","w":300},"\/":{"d":"0,-200r100,0r0,-200r100,0r0,-200r100,0r0,-200r100,0r0,-100r200,0r0,200r-100,0r0,200r-100,0r0,200r-100,0r0,200r-100,0r0,100r-200,0r0,-200"},"0":{"d":"600,-900r0,800r-100,0r0,100r-400,0r0,-100r-100,0r0,-800r100,0r0,-100r400,0r0,100r100,0xm400,-800r-200,0r0,600r200,0r0,-600"},"1":{"d":"0,-800r200,0r0,-200r200,0r0,1000r-200,0r0,-600r-200,0r0,-200","w":500},"2":{"d":"0,-500r100,0r0,-100r300,0r0,-200r-400,0r0,-200r500,0r0,100r100,0r0,400r-100,0r0,100r-300,0r0,200r400,0r0,200r-600,0r0,-500"},"3":{"d":"600,-400r0,300r-100,0r0,100r-500,0r0,-200r400,0r0,-200r-400,0r0,-200r400,0r0,-200r-400,0r0,-200r500,0r0,100r100,0r0,300r-100,0r0,200r100,0"},"4":{"d":"100,-400r0,-100r-100,0r0,-500r200,0r0,400r200,0r0,-400r200,0r0,1000r-200,0r0,-400r-300,0"},"5":{"d":"0,-1000r600,0r0,200r-400,0r0,200r300,0r0,100r100,0r0,400r-100,0r0,100r-500,0r0,-200r400,0r0,-200r-400,0r0,-600"},"6":{"d":"100,0r0,-100r-100,0r0,-800r100,0r0,-100r500,0r0,200r-400,0r0,200r300,0r0,100r100,0r0,400r-100,0r0,100r-400,0xm200,-400r0,200r200,0r0,-200r-200,0"},"7":{"d":"600,-900r0,300r-100,0r0,200r-100,0r0,400r-200,0r0,-400r100,0r0,-200r100,0r0,-200r-400,0r0,-200r500,0r0,100r100,0"},"8":{"d":"600,-400r0,300r-100,0r0,100r-400,0r0,-100r-100,0r0,-300r100,0r0,-200r-100,0r0,-300r100,0r0,-100r400,0r0,100r100,0r0,300r-100,0r0,200r100,0xm200,-400r0,200r200,0r0,-200r-200,0xm200,-600r200,0r0,-200r-200,0r0,200"},"9":{"d":"500,-1000r0,100r100,0r0,800r-100,0r0,100r-500,0r0,-200r400,0r0,-200r-300,0r0,-100r-100,0r0,-400r100,0r0,-100r400,0xm400,-600r0,-200r-200,0r0,200r200,0"},":":{"d":"0,-200r200,0r0,200r-200,0r0,-200xm0,-600r200,0r0,200r-200,0r0,-200","w":300},";":{"d":"0,-200r200,0r0,400r-100,0r0,-200r-100,0r0,-200xm0,-600r200,0r0,200r-200,0r0,-200","w":300},"<":{"d":"200,-100r-100,0r0,-100r-100,0r0,-200r100,0r0,-100r100,0r0,-100r200,0r0,200r-100,0r0,200r100,0r0,200r-200,0r0,-100","w":500},"=":{"d":"0,-600r600,0r0,200r-600,0r0,-200xm0,-200r600,0r0,200r-600,0r0,-200"},">":{"d":"200,-500r100,0r0,100r100,0r0,200r-100,0r0,100r-100,0r0,100r-200,0r0,-200r100,0r0,-200r-100,0r0,-200r200,0r0,100","w":500},"?":{"d":"200,-600r200,0r0,-200r-400,0r0,-200r500,0r0,100r100,0r0,400r-100,0r0,100r-300,0r0,-200xm200,-200r200,0r0,200r-200,0r0,-200"},"@":{"d":"1100,-800r-800,0r0,100r-100,0r0,800r100,0r0,100r900,0r0,200r-1000,0r0,-100r-100,0r0,-100r-100,0r0,-1000r100,0r0,-100r100,0r0,-100r1000,0r0,100r100,0r0,100r100,0r0,700r-100,0r0,100r-800,0r0,-100r-100,0r0,-400r100,0r0,-100r500,0r0,400r200,0r0,-500r-100,0r0,-100xm600,-200r200,0r0,-200r-200,0r0,200","w":1500},"A":{"d":"600,-900r0,900r-200,0r0,-400r-200,0r0,400r-200,0r0,-900r100,0r0,-100r400,0r0,100r100,0xm200,-600r200,0r0,-200r-200,0r0,200"},"B":{"d":"600,-400r0,300r-100,0r0,100r-500,0r0,-1000r500,0r0,100r100,0r0,300r-100,0r0,200r100,0xm200,-200r200,0r0,-200r-200,0r0,200xm200,-600r200,0r0,-200r-200,0r0,200"},"C":{"d":"100,0r0,-100r-100,0r0,-800r100,0r0,-100r500,0r0,200r-400,0r0,600r400,0r0,200r-500,0"},"D":{"d":"0,0r0,-1000r500,0r0,100r100,0r0,800r-100,0r0,100r-500,0xm200,-800r0,600r200,0r0,-600r-200,0"},"E":{"d":"0,-1000r600,0r0,200r-400,0r0,200r400,0r0,200r-400,0r0,200r400,0r0,200r-600,0r0,-1000"},"F":{"d":"0,-1000r600,0r0,200r-400,0r0,200r400,0r0,200r-400,0r0,400r-200,0r0,-1000"},"G":{"d":"100,-100r-100,0r0,-800r100,0r0,-100r500,0r0,200r-400,0r0,600r200,0r0,-400r200,0r0,500r-100,0r0,100r-400,0r0,-100"},"H":{"d":"400,-400r-200,0r0,400r-200,0r0,-1000r200,0r0,400r200,0r0,-400r200,0r0,1000r-200,0r0,-400"},"I":{"d":"0,-1000r200,0r0,1000r-200,0r0,-1000","w":300},"J":{"d":"500,0r-400,0r0,-100r-100,0r0,-300r200,0r0,200r200,0r0,-800r200,0r0,900r-100,0r0,100"},"K":{"d":"400,-200r-100,0r0,-200r-100,0r0,400r-200,0r0,-1000r200,0r0,400r100,0r0,-200r100,0r0,-200r200,0r0,300r-100,0r0,100r-100,0r0,200r100,0r0,100r100,0r0,300r-200,0r0,-200"},"L":{"d":"0,-1000r200,0r0,800r400,0r0,200r-600,0r0,-1000"},"M":{"d":"800,-1000r0,1000r-200,0r0,-600r-100,0r0,100r-200,0r0,-100r-100,0r0,600r-200,0r0,-1000r200,0r0,100r100,0r0,100r200,0r0,-100r100,0r0,-100r200,0","w":900},"N":{"d":"400,-500r-100,0r0,-100r-100,0r0,600r-200,0r0,-1000r200,0r0,100r100,0r0,100r100,0r0,-200r200,0r0,1000r-200,0r0,-500"},"O":{"d":"600,-900r0,800r-100,0r0,100r-400,0r0,-100r-100,0r0,-800r100,0r0,-100r400,0r0,100r100,0xm400,-800r-200,0r0,600r200,0r0,-600"},"P":{"d":"500,-400r-300,0r0,400r-200,0r0,-1000r500,0r0,100r100,0r0,400r-100,0r0,100xm200,-600r200,0r0,-200r-200,0r0,200"},"Q":{"d":"300,300r0,-100r-100,0r0,-200r-100,0r0,-100r-100,0r0,-800r100,0r0,-100r400,0r0,100r100,0r0,800r-100,0r0,100r-100,0r0,100r200,0r0,200r-300,0xm400,-800r-200,0r0,600r200,0r0,-600"},"R":{"d":"400,0r1,-402r-201,0r0,402r-200,0r0,-1000r500,0r0,100r100,0r0,400r-100,0r0,98r100,0r0,402r-200,0xm200,-600r200,0r0,-200r-200,0r0,200"},"S":{"d":"0,0r0,-200r400,0r0,-200r-300,0r0,-100r-100,0r0,-400r100,0r0,-100r500,0r0,200r-400,0r0,200r300,0r0,100r100,0r0,400r-100,0r0,100r-500,0"},"T":{"d":"0,-1000r600,0r0,200r-200,0r0,800r-200,0r0,-800r-200,0r0,-200"},"U":{"d":"400,-1000r200,0r0,900r-100,0r0,100r-400,0r0,-100r-100,0r0,-900r200,0r0,800r200,0r0,-800"},"V":{"d":"0,-1000r200,0r0,700r100,0r0,-100r100,0r0,-600r200,0r0,700r-100,0r0,100r-100,0r0,100r-100,0r0,100r-300,0r0,-1000"},"W":{"d":"300,-100r0,100r-200,0r0,-100r-100,0r0,-900r200,0r0,700r100,0r0,-100r100,0r0,-600r200,0r0,700r100,0r0,-100r100,0r0,-600r200,0r0,700r-100,0r0,100r-100,0r0,100r-100,0r0,100r-200,0r0,-100r-200,0","w":1100},"X":{"d":"0,-300r100,0r0,-100r100,0r0,-200r-100,0r0,-100r-100,0r0,-300r200,0r0,300r200,0r0,-300r200,0r0,300r-100,0r0,100r-100,0r0,200r100,0r0,100r100,0r0,300r-200,0r0,-300r-200,0r0,300r-200,0r0,-300"},"Y":{"d":"200,0r0,-400r-100,0r0,-100r-100,0r0,-500r200,0r0,400r200,0r0,-400r200,0r0,500r-100,0r0,100r-100,0r0,400r-200,0"},"Z":{"d":"0,-400r100,0r0,-100r100,0r0,-100r200,0r0,-200r-400,0r0,-200r600,0r0,400r-100,0r0,100r-100,0r0,100r-200,0r0,200r400,0r0,200r-600,0r0,-400"},"[":{"d":"0,-1000r400,0r0,200r-200,0r0,600r200,0r0,200r-400,0r0,-1000","w":500},"\\":{"d":"0,-200r100,0r0,-200r100,0r0,-200r100,0r0,-200r100,0r0,-100r200,0r0,200r-100,0r0,200r-100,0r0,200r-100,0r0,200r-100,0r0,100r-200,0r0,-200"},"]":{"d":"0,-200r200,0r0,-600r-200,0r0,-200r400,0r0,1000r-400,0r0,-200","w":500},"_":{"d":"0,-200r600,0r0,200r-600,0r0,-200"},"a":{"d":"400,-500r0,-100r200,0r0,600r-200,0r0,-100r-100,0r0,100r-200,0r0,-100r-100,0r0,-400r100,0r0,-100r200,0r0,100r100,0xm200,-200r200,0r0,-200r-200,0r0,200"},"b":{"d":"300,-500r0,-100r200,0r0,100r100,0r0,400r-100,0r0,100r-500,0r0,-1000r200,0r0,500r100,0xm400,-400r-200,0r0,200r200,0r0,-200"},"c":{"d":"200,-200r300,0r0,200r-400,0r0,-100r-100,0r0,-400r100,0r0,-100r400,0r0,200r-300,0r0,200","w":600},"d":{"d":"400,-500r0,-500r200,0r0,1000r-500,0r0,-100r-100,0r0,-400r100,0r0,-100r200,0r0,100r100,0xm200,-200r200,0r0,-200r-200,0r0,200"},"e":{"d":"600,-500r0,200r-400,0r0,100r400,0r0,100r-100,0r0,100r-400,0r0,-100r-100,0r0,-400r100,0r0,-100r400,0r0,100r100,0xm300,-400r0,-100r-100,0r0,100r100,0"},"f":{"d":"400,-1000r0,200r-200,0r0,200r200,0r0,200r-200,0r0,400r-200,0r0,-900r100,0r0,-100r300,0","w":500},"g":{"d":"400,-500r0,-100r200,0r0,900r-100,0r0,100r-300,0r0,-200r200,0r0,-200r-300,0r0,-100r-100,0r0,-400r100,0r0,-100r200,0r0,100r100,0xm200,-200r200,0r0,-200r-200,0r0,200"},"h":{"d":"300,-500r0,-100r200,0r0,100r100,0r0,500r-200,0r0,-400r-200,0r0,400r-200,0r0,-1000r200,0r0,500r100,0"},"i":{"d":"0,-600r200,0r0,600r-200,0r0,-600xm0,-1000r200,0r0,200r-200,0r0,-200","w":300},"j":{"d":"-200,400r0,-200r200,0r0,-800r200,0r0,900r-100,0r0,100r-300,0xm0,-1000r200,0r0,200r-200,0r0,-200","w":300},"k":{"d":"400,-100r-100,0r0,-100r-100,0r0,200r-200,0r0,-1000r200,0r0,600r100,0r0,-100r100,0r0,-100r200,0r0,200r-200,0r0,200r200,0r0,200r-200,0r0,-100"},"l":{"d":"0,-1000r200,0r0,1000r-200,0r0,-1000","w":300},"m":{"d":"300,-500r0,-100r200,0r0,100r100,0r0,-100r300,0r0,100r100,0r0,500r-200,0r0,-400r-200,0r0,400r-200,0r0,-400r-200,0r0,400r-200,0r0,-600r200,0r0,100r100,0","w":1100},"n":{"d":"400,0r0,-400r-200,0r0,400r-200,0r0,-600r200,0r0,100r100,0r0,-100r200,0r0,100r100,0r0,500r-200,0"},"o":{"d":"600,-500r0,400r-100,0r0,100r-400,0r0,-100r-100,0r0,-400r100,0r0,-100r400,0r0,100r100,0xm200,-200r200,0r0,-200r-200,0r0,200"},"p":{"d":"300,-500r0,-100r200,0r0,100r100,0r0,400r-100,0r0,100r-300,0r0,400r-200,0r0,-1000r200,0r0,100r100,0xm200,-200r200,0r0,-200r-200,0r0,200"},"q":{"d":"400,-500r0,-100r200,0r0,1000r-200,0r0,-400r-300,0r0,-100r-100,0r0,-400r100,0r0,-100r200,0r0,100r100,0xm400,-400r-200,0r0,200r200,0r0,-200"},"r":{"d":"200,0r-200,0r0,-500r100,0r0,-100r300,0r0,200r-200,0r0,400","w":500},"s":{"d":"0,-200r200,0r0,-100r-100,0r0,-100r-100,0r0,-100r100,0r0,-100r400,0r0,200r-200,0r0,100r100,0r0,100r100,0r0,100r-100,0r0,100r-400,0r0,-200","w":600},"t":{"d":"100,0r0,-100r-100,0r0,-900r200,0r0,400r200,0r0,200r-200,0r0,200r200,0r0,200r-300,0","w":500},"u":{"d":"400,-600r200,0r0,500r-100,0r0,100r-400,0r0,-100r-100,0r0,-500r200,0r0,400r200,0r0,-400"},"v":{"d":"0,-600r200,0r0,300r100,0r0,-100r100,0r0,-200r200,0r0,300r-100,0r0,100r-100,0r0,100r-100,0r0,100r-300,0r0,-600"},"w":{"d":"100,-100r-100,0r0,-500r200,0r0,400r200,0r0,-400r200,0r0,400r200,0r0,-400r200,0r0,500r-100,0r0,100r-300,0r0,-100r-200,0r0,100r-300,0r0,-100","w":1100},"x":{"d":"200,-200r0,-200r-200,0r0,-200r200,0r0,100r200,0r0,-100r200,0r0,200r-200,0r0,200r200,0r0,200r-200,0r0,-100r-200,0r0,100r-200,0r0,-200r200,0"},"y":{"d":"200,400r0,-200r200,0r0,-200r-300,0r0,-100r-100,0r0,-500r200,0r0,400r200,0r0,-400r200,0r0,900r-100,0r0,100r-300,0"},"z":{"d":"0,-200r100,0r0,-100r100,0r0,-100r-200,0r0,-200r500,0r0,200r-100,0r0,100r-100,0r0,100r200,0r0,200r-500,0r0,-200","w":600},"{":{"d":"300,-400r0,200r100,0r0,200r-200,0r0,-100r-100,0r0,-300r-100,0r0,-200r100,0r0,-300r100,0r0,-100r200,0r0,200r-100,0r0,200r-100,0r0,200r100,0","w":500},"|":{"d":"0,-1000r200,0r0,1000r-200,0r0,-1000","w":300},"}":{"d":"100,-600r0,-200r-100,0r0,-200r200,0r0,100r100,0r0,300r100,0r0,200r-100,0r0,300r-100,0r0,100r-200,0r0,-200r100,0r0,-200r100,0r0,-200r-100,0","w":500}}});


